digraph Tree {
node [shape=box] ;
0 [label="X[0] <= 5.55\nentropy = 1.585\nsamples = 150\nvalue = [50, 50, 50]\nclass = setosa"] ;
1 [label="X[0] <= 5.45\nentropy = 0.813\nsamples = 59\nvalue = [47, 11, 1]\nclass = setosa"] ;
0 -> 1 [labeldistance=2.5, labelangle=45, headlabel="True"] ;
5 [label="entropy = 0.65\nsamples = 52\nvalue = [45, 6, 1]\nclass = setosa"] ;
1 -> 5 ;
6 [label="entropy = 0.863\nsamples = 7\nvalue = [2, 5, 0]\nclass = versicolor"] ;
1 -> 6 ;
2 [label="X[0] <= 6.15\nentropy = 1.167\nsamples = 91\nvalue = [3, 39, 49]\nclass = virginica"] ;
0 -> 2 [labeldistance=2.5, labelangle=-45, headlabel="False"] ;
3 [label="entropy = 1.225\nsamples = 36\nvalue = [3, 23, 10]\nclass = versicolor"] ;
2 -> 3 ;
4 [label="entropy = 0.87\nsamples = 55\nvalue = [0, 16, 39]\nclass = virginica"] ;
2 -> 4 ;
}